digraph Tree {
node [shape=box, style="filled, rounded", color="black", fontname="helvetica"] ;
edge [fontname="helvetica"] ;
0 [label="sepal length (cm) <= 5.45\ngini = 0.66\nsamples = 97\nvalue = [51, 54, 45]\nclass = versicolor", fillcolor="#f9fefb"] ;
1 [label="petal width (cm) <= 0.8\ngini = 0.24\nsamples = 36\nvalue = [48, 8, 0]\nclass = setosa", fillcolor="#e9965a"] ;
0 -> 1 [labeldistance=2.5, labelangle=45, headlabel="True"] ;
2 [label="gini = 0.0\nsamples = 31\nvalue = [48, 0, 0]\nclass = setosa", fillcolor="#e58139"] ;
1 -> 2 ;
3 [label="gini = 0.0\nsamples = 5\nvalue = [0, 8, 0]\nclass = versicolor", fillcolor="#39e581"] ;
1 -> 3 ;
4 [label="petal width (cm) <= 1.75\ngini = 0.53\nsamples = 61\nvalue = [3, 46, 45]\nclass = versicolor", fillcolor="#fbfefc"] ;
0 -> 4 [labeldistance=2.5, labelangle=-45, headlabel="False"] ;
5 [label="sepal width (cm) <= 3.45\ngini = 0.24\nsamples = 34\nvalue = [3, 45, 4]\nclass = versicolor", fillcolor="#56e993"] ;
4 -> 5 ;
6 [label="petal length (cm) <= 4.9\ngini = 0.15\nsamples = 31\nvalue = [0, 45, 4]\nclass = versicolor", fillcolor="#4be78c"] ;
5 -> 6 ;
7 [label="gini = 0.0\nsamples = 27\nvalue = [0, 42, 0]\nclass = versicolor", fillcolor="#39e581"] ;
6 -> 7 ;
8 [label="petal width (cm) <= 1.55\ngini = 0.49\nsamples = 4\nvalue = [0, 3, 4]\nclass = virginica", fillcolor="#e0cef8"] ;
6 -> 8 ;
9 [label="gini = 0.0\nsamples = 1\nvalue = [0, 0, 2]\nclass = virginica", fillcolor="#8139e5"] ;
8 -> 9 ;
10 [label="sepal length (cm) <= 6.95\ngini = 0.48\nsamples = 3\nvalue = [0, 3, 2]\nclass = versicolor", fillcolor="#bdf6d5"] ;
8 -> 10 ;
11 [label="gini = 0.0\nsamples = 2\nvalue = [0, 3, 0]\nclass = versicolor", fillcolor="#39e581"] ;
10 -> 11 ;
12 [label="gini = 0.0\nsamples = 1\nvalue = [0, 0, 2]\nclass = virginica", fillcolor="#8139e5"] ;
10 -> 12 ;
13 [label="gini = 0.0\nsamples = 3\nvalue = [3, 0, 0]\nclass = setosa", fillcolor="#e58139"] ;
5 -> 13 ;
14 [label="petal length (cm) <= 4.9\ngini = 0.05\nsamples = 27\nvalue = [0, 1, 41]\nclass = virginica", fillcolor="#843ee6"] ;
4 -> 14 ;
15 [label="sepal length (cm) <= 6.05\ngini = 0.5\nsamples = 2\nvalue = [0, 1, 1]\nclass = versicolor", fillcolor="#ffffff"] ;
14 -> 15 ;
16 [label="gini = 0.0\nsamples = 1\nvalue = [0, 1, 0]\nclass = versicolor", fillcolor="#39e581"] ;
15 -> 16 ;
17 [label="gini = 0.0\nsamples = 1\nvalue = [0, 0, 1]\nclass = virginica", fillcolor="#8139e5"] ;
15 -> 17 ;
18 [label="gini = 0.0\nsamples = 25\nvalue = [0, 0, 40]\nclass = virginica", fillcolor="#8139e5"] ;
14 -> 18 ;
}